digraph Tree {
node [shape=box] ;
0 [label="intake_type_Wildlife <= 0.5\ngini = 0.166\nsamples = 700\nvalue = [636, 64]\nclass = y[0]"] ;
1 [label="intake_condition_Injured <= 0.5\ngini = 0.094\nsamples = 669\nvalue = [636, 33]\nclass = y[0]"] ;
0 -> 1 [labeldistance=2.5, labelangle=45, headlabel="True"] ;
2 [label="intake_condition_Sick <= 0.5\ngini = 0.069\nsamples = 642\nvalue = [619, 23]\nclass = y[0]"] ;
1 -> 2 ;
3 [label="animal_breed_Bat <= 0.5\ngini = 0.054\nsamples = 618\nvalue = [601, 17]\nclass = y[0]"] ;
2 -> 3 ;
4 [label="animal_color_Tricolor <= 0.5\ngini = 0.051\nsamples = 617\nvalue = [601, 16]\nclass = y[0]"] ;
3 -> 4 ;
5 [label="animal_breed_Border Collie <= 0.5\ngini = 0.04\nsamples = 582\nvalue = [570, 12]\nclass = y[0]"] ;
4 -> 5 ;
6 [label="animal_color_Tan <= 0.5\ngini = 0.037\nsamples = 577\nvalue = [566, 11]\nclass = y[0]"] ;
5 -> 6 ;
7 [label="animal_breed_Domestic Mixed <= 0.5\ngini = 0.029\nsamples = 538\nvalue = [530, 8]\nclass = y[0]"] ;
6 -> 7 ;
8 [label="month_outcome_8 <= 0.5\ngini = 0.006\nsamples = 320\nvalue = [319, 1]\nclass = y[0]"] ;
7 -> 8 ;
9 [label="gini = 0.0\nsamples = 287\nvalue = [287, 0]\nclass = y[0]"] ;
8 -> 9 ;
10 [label="animal_color_White <= 0.5\ngini = 0.059\nsamples = 33\nvalue = [32, 1]\nclass = y[0]"] ;
8 -> 10 ;
11 [label="gini = 0.0\nsamples = 28\nvalue = [28, 0]\nclass = y[0]"] ;
10 -> 11 ;
12 [label="animal_breed_Pit Bull <= 0.5\ngini = 0.32\nsamples = 5\nvalue = [4, 1]\nclass = y[0]"] ;
10 -> 12 ;
13 [label="gini = 0.0\nsamples = 4\nvalue = [4, 0]\nclass = y[0]"] ;
12 -> 13 ;
14 [label="gini = 0.0\nsamples = 1\nvalue = [0, 1]\nclass = y[1]"] ;
12 -> 14 ;
15 [label="animal_color_other <= 0.5\ngini = 0.062\nsamples = 218\nvalue = [211, 7]\nclass = y[0]"] ;
7 -> 15 ;
16 [label="month_outcome_10 <= 0.5\ngini = 0.047\nsamples = 206\nvalue = [201, 5]\nclass = y[0]"] ;
15 -> 16 ;
17 [label="month_outcome_7 <= 0.5\ngini = 0.032\nsamples = 186\nvalue = [183, 3]\nclass = y[0]"] ;
16 -> 17 ;
18 [label="month_outcome_4 <= 0.5\ngini = 0.012\nsamples = 162\nvalue = [161, 1]\nclass = y[0]"] ;
17 -> 18 ;
19 [label="gini = 0.0\nsamples = 146\nvalue = [146, 0]\nclass = y[0]"] ;
18 -> 19 ;
20 [label="animal_color_Blue <= 0.5\ngini = 0.117\nsamples = 16\nvalue = [15, 1]\nclass = y[0]"] ;
18 -> 20 ;
21 [label="gini = 0.0\nsamples = 14\nvalue = [14, 0]\nclass = y[0]"] ;
20 -> 21 ;
22 [label="time_in_shelter_days_imputation <= 1.5\ngini = 0.5\nsamples = 2\nvalue = [1, 1]\nclass = y[0]"] ;
20 -> 22 ;
23 [label="gini = 0.0\nsamples = 1\nvalue = [0, 1]\nclass = y[1]"] ;
22 -> 23 ;
24 [label="gini = 0.0\nsamples = 1\nvalue = [1, 0]\nclass = y[0]"] ;
22 -> 24 ;
25 [label="time_in_shelter_days_imputation <= 51.5\ngini = 0.153\nsamples = 24\nvalue = [22, 2]\nclass = y[0]"] ;
17 -> 25 ;
26 [label="intake_type_Owner Surrender <= 0.5\ngini = 0.087\nsamples = 22\nvalue = [21, 1]\nclass = y[0]"] ;
25 -> 26 ;
27 [label="gini = 0.0\nsamples = 19\nvalue = [19, 0]\nclass = y[0]"] ;
26 -> 27 ;
28 [label="time_in_shelter_days_imputation <= 10.5\ngini = 0.444\nsamples = 3\nvalue = [2, 1]\nclass = y[0]"] ;
26 -> 28 ;
29 [label="gini = 0.0\nsamples = 2\nvalue = [2, 0]\nclass = y[0]"] ;
28 -> 29 ;
30 [label="gini = 0.0\nsamples = 1\nvalue = [0, 1]\nclass = y[1]"] ;
28 -> 30 ;
31 [label="month_intake_5 <= 0.5\ngini = 0.5\nsamples = 2\nvalue = [1, 1]\nclass = y[0]"] ;
25 -> 31 ;
32 [label="gini = 0.0\nsamples = 1\nvalue = [1, 0]\nclass = y[0]"] ;
31 -> 32 ;
33 [label="gini = 0.0\nsamples = 1\nvalue = [0, 1]\nclass = y[1]"] ;
31 -> 33 ;
34 [label="month_intake_9 <= 0.5\ngini = 0.18\nsamples = 20\nvalue = [18, 2]\nclass = y[0]"] ;
16 -> 34 ;
35 [label="animal_color_Blue <= 0.5\ngini = 0.105\nsamples = 18\nvalue = [17, 1]\nclass = y[0]"] ;
34 -> 35 ;
36 [label="gini = 0.0\nsamples = 15\nvalue = [15, 0]\nclass = y[0]"] ;
35 -> 36 ;
37 [label="time_in_shelter_days_imputation <= 4.5\ngini = 0.444\nsamples = 3\nvalue = [2, 1]\nclass = y[0]"] ;
35 -> 37 ;
38 [label="gini = 0.0\nsamples = 2\nvalue = [2, 0]\nclass = y[0]"] ;
37 -> 38 ;
39 [label="gini = 0.0\nsamples = 1\nvalue = [0, 1]\nclass = y[1]"] ;
37 -> 39 ;
40 [label="animal_color_White <= 0.5\ngini = 0.5\nsamples = 2\nvalue = [1, 1]\nclass = y[0]"] ;
34 -> 40 ;
41 [label="gini = 0.0\nsamples = 1\nvalue = [1, 0]\nclass = y[0]"] ;
40 -> 41 ;
42 [label="gini = 0.0\nsamples = 1\nvalue = [0, 1]\nclass = y[1]"] ;
40 -> 42 ;
43 [label="month_intake_12 <= 0.5\ngini = 0.278\nsamples = 12\nvalue = [10, 2]\nclass = y[0]"] ;
15 -> 43 ;
44 [label="month_outcome_5 <= 0.5\ngini = 0.165\nsamples = 11\nvalue = [10, 1]\nclass = y[0]"] ;
43 -> 44 ;
45 [label="gini = 0.0\nsamples = 8\nvalue = [8, 0]\nclass = y[0]"] ;
44 -> 45 ;
46 [label="gini = 0.444\nsamples = 3\nvalue = [2, 1]\nclass = y[0]"] ;
44 -> 46 ;
47 [label="gini = 0.0\nsamples = 1\nvalue = [0, 1]\nclass = y[1]"] ;
43 -> 47 ;
48 [label="month_intake_12 <= 0.5\ngini = 0.142\nsamples = 39\nvalue = [36, 3]\nclass = y[0]"] ;
6 -> 48 ;
49 [label="month_intake_3 <= 0.5\ngini = 0.102\nsamples = 37\nvalue = [35, 2]\nclass = y[0]"] ;
48 -> 49 ;
50 [label="intake_type_Owner Surrender <= 0.5\ngini = 0.057\nsamples = 34\nvalue = [33, 1]\nclass = y[0]"] ;
49 -> 50 ;
51 [label="gini = 0.0\nsamples = 30\nvalue = [30, 0]\nclass = y[0]"] ;
50 -> 51 ;
52 [label="month_intake_6 <= 0.5\ngini = 0.375\nsamples = 4\nvalue = [3, 1]\nclass = y[0]"] ;
50 -> 52 ;
53 [label="gini = 0.0\nsamples = 3\nvalue = [3, 0]\nclass = y[0]"] ;
52 -> 53 ;
54 [label="gini = 0.0\nsamples = 1\nvalue = [0, 1]\nclass = y[1]"] ;
52 -> 54 ;
55 [label="animal_breed_Chihuahua  <= 0.5\ngini = 0.444\nsamples = 3\nvalue = [2, 1]\nclass = y[0]"] ;
49 -> 55 ;
56 [label="gini = 0.0\nsamples = 2\nvalue = [2, 0]\nclass = y[0]"] ;
55 -> 56 ;
57 [label="gini = 0.0\nsamples = 1\nvalue = [0, 1]\nclass = y[1]"] ;
55 -> 57 ;
58 [label="month_outcome_2 <= 0.5\ngini = 0.5\nsamples = 2\nvalue = [1, 1]\nclass = y[0]"] ;
48 -> 58 ;
59 [label="gini = 0.0\nsamples = 1\nvalue = [0, 1]\nclass = y[1]"] ;
58 -> 59 ;
60 [label="gini = 0.0\nsamples = 1\nvalue = [1, 0]\nclass = y[0]"] ;
58 -> 60 ;
61 [label="month_intake_2 <= 0.5\ngini = 0.32\nsamples = 5\nvalue = [4, 1]\nclass = y[0]"] ;
5 -> 61 ;
62 [label="gini = 0.0\nsamples = 4\nvalue = [4, 0]\nclass = y[0]"] ;
61 -> 62 ;
63 [label="gini = 0.0\nsamples = 1\nvalue = [0, 1]\nclass = y[1]"] ;
61 -> 63 ;
64 [label="month_intake_4 <= 0.5\ngini = 0.202\nsamples = 35\nvalue = [31, 4]\nclass = y[0]"] ;
4 -> 64 ;
65 [label="time_in_shelter_days_imputation <= 43.0\ngini = 0.161\nsamples = 34\nvalue = [31, 3]\nclass = y[0]"] ;
64 -> 65 ;
66 [label="month_intake_12 <= 0.5\ngini = 0.117\nsamples = 32\nvalue = [30, 2]\nclass = y[0]"] ;
65 -> 66 ;
67 [label="month_intake_11 <= 0.5\ngini = 0.067\nsamples = 29\nvalue = [28, 1]\nclass = y[0]"] ;
66 -> 67 ;
68 [label="gini = 0.0\nsamples = 26\nvalue = [26, 0]\nclass = y[0]"] ;
67 -> 68 ;
69 [label="neuter_status_intake_Not neutered <= 0.5\ngini = 0.444\nsamples = 3\nvalue = [2, 1]\nclass = y[0]"] ;
67 -> 69 ;
70 [label="gini = 0.0\nsamples = 1\nvalue = [1, 0]\nclass = y[0]"] ;
69 -> 70 ;
71 [label="time_in_shelter_days_imputation <= 8.5\ngini = 0.5\nsamples = 2\nvalue = [1, 1]\nclass = y[0]"] ;
69 -> 71 ;
72 [label="gini = 0.0\nsamples = 1\nvalue = [0, 1]\nclass = y[1]"] ;
71 -> 72 ;
73 [label="gini = 0.0\nsamples = 1\nvalue = [1, 0]\nclass = y[0]"] ;
71 -> 73 ;
74 [label="animal_breed_Domestic Mixed <= 0.5\ngini = 0.444\nsamples = 3\nvalue = [2, 1]\nclass = y[0]"] ;
66 -> 74 ;
75 [label="gini = 0.0\nsamples = 2\nvalue = [2, 0]\nclass = y[0]"] ;
74 -> 75 ;
76 [label="gini = 0.0\nsamples = 1\nvalue = [0, 1]\nclass = y[1]"] ;
74 -> 76 ;
77 [label="intake_type_Stray <= 0.5\ngini = 0.5\nsamples = 2\nvalue = [1, 1]\nclass = y[0]"] ;
65 -> 77 ;
78 [label="gini = 0.0\nsamples = 1\nvalue = [1, 0]\nclass = y[0]"] ;
77 -> 78 ;
79 [label="gini = 0.0\nsamples = 1\nvalue = [0, 1]\nclass = y[1]"] ;
77 -> 79 ;
80 [label="gini = 0.0\nsamples = 1\nvalue = [0, 1]\nclass = y[1]"] ;
64 -> 80 ;
81 [label="gini = 0.0\nsamples = 1\nvalue = [0, 1]\nclass = y[1]"] ;
3 -> 81 ;
82 [label="time_in_shelter_days_imputation <= 0.5\ngini = 0.375\nsamples = 24\nvalue = [18, 6]\nclass = y[0]"] ;
2 -> 82 ;
83 [label="month_intake_7 <= 0.5\ngini = 0.444\nsamples = 9\nvalue = [3, 6]\nclass = y[1]"] ;
82 -> 83 ;
84 [label="month_intake_4 <= 0.5\ngini = 0.375\nsamples = 8\nvalue = [2, 6]\nclass = y[1]"] ;
83 -> 84 ;
85 [label="animal_color_Tan <= 0.5\ngini = 0.245\nsamples = 7\nvalue = [1, 6]\nclass = y[1]"] ;
84 -> 85 ;
86 [label="gini = 0.0\nsamples = 6\nvalue = [0, 6]\nclass = y[1]"] ;
85 -> 86 ;
87 [label="gini = 0.0\nsamples = 1\nvalue = [1, 0]\nclass = y[0]"] ;
85 -> 87 ;
88 [label="gini = 0.0\nsamples = 1\nvalue = [1, 0]\nclass = y[0]"] ;
84 -> 88 ;
89 [label="gini = 0.0\nsamples = 1\nvalue = [1, 0]\nclass = y[0]"] ;
83 -> 89 ;
90 [label="gini = 0.0\nsamples = 15\nvalue = [15, 0]\nclass = y[0]"] ;
82 -> 90 ;
91 [label="time_in_shelter_days_imputation <= 0.5\ngini = 0.466\nsamples = 27\nvalue = [17, 10]\nclass = y[0]"] ;
1 -> 91 ;
92 [label="month_outcome_10 <= 0.5\ngini = 0.397\nsamples = 11\nvalue = [3, 8]\nclass = y[1]"] ;
91 -> 92 ;
93 [label="month_intake_8 <= 0.5\ngini = 0.198\nsamples = 9\nvalue = [1, 8]\nclass = y[1]"] ;
92 -> 93 ;
94 [label="gini = 0.0\nsamples = 8\nvalue = [0, 8]\nclass = y[1]"] ;
93 -> 94 ;
95 [label="gini = 0.0\nsamples = 1\nvalue = [1, 0]\nclass = y[0]"] ;
93 -> 95 ;
96 [label="gini = 0.0\nsamples = 2\nvalue = [2, 0]\nclass = y[0]"] ;
92 -> 96 ;
97 [label="time_in_shelter_days_imputation <= 89.5\ngini = 0.219\nsamples = 16\nvalue = [14, 2]\nclass = y[0]"] ;
91 -> 97 ;
98 [label="month_intake_6 <= 0.5\ngini = 0.124\nsamples = 15\nvalue = [14, 1]\nclass = y[0]"] ;
97 -> 98 ;
99 [label="gini = 0.0\nsamples = 14\nvalue = [14, 0]\nclass = y[0]"] ;
98 -> 99 ;
100 [label="gini = 0.0\nsamples = 1\nvalue = [0, 1]\nclass = y[1]"] ;
98 -> 100 ;
101 [label="gini = 0.0\nsamples = 1\nvalue = [0, 1]\nclass = y[1]"] ;
97 -> 101 ;
102 [label="gini = 0.0\nsamples = 31\nvalue = [0, 31]\nclass = y[1]"] ;
0 -> 102 [labeldistance=2.5, labelangle=-45, headlabel="False"] ;
}